{
  "W1": [
    [
      0.08718775014700457,
      -0.1505058274227564,
      -0.20073857526534933,
      -0.008135381293813216,
      0.05057187108929603,
      -0.03314474960506498,
      -0.13237681969259885,
      -0.07273498262782063,
      0.010690708282634648,
      -0.21415076106333378,
      0.20026925128431827,
      0.05459467733235382,
      0.04266464367605236,
      -0.19747341906626592,
      0.18850848561695485,
      0.1046880247732387,
      -0.22765502242577035,
      0.024149580550257427,
      0.29419371034499975,
      -0.012994154531664037,
      0.08463485067825655,
      0.08980421826254792,
      0.0016891844114813282,
      0.002584835499277042,
      -0.20751824056933618,
      -0.0365972893444315,
      0.12604376780350862,
      -0.2702308685388449,
      -0.09353255381336124,
      0.04863427554812854,
      -0.006632780075814513,
      -0.005830047878132538
    ],
    [
      -0.12178390647606072,
      -0.10378763829668558,
      0.032155323018964455,
      0.17635108832636223,
      -0.3136446985343309,
      0.3277509630971676,
      -0.12470940528998951,
      -0.1505514543685393,
      0.15031648198868644,
      -0.285546238230573,
      0.11845619209081104,
      -0.03537817982608954,
      -0.26469993517838336,
      -0.09651291512458272,
      0.16138548279707676,
      0.09561242616643957,
      0.19662974728071864,
      -0.03627189983740705,
      0.06815821141895781,
      -0.2436323105760304,
      0.01226633715648609,
      -0.5565969752948453,
      -0.06418760634798293,
      0.09526573850988845,
      0.27715203602021843,
      0.2196802764572213,
      0.12483984189741992,
      -0.06540888869235208,
      -0.10420645000620533,
      0.002156747976375088,
      0.6535636287926779,
      -0.15364474061856168
    ],
    [
      -0.14656662700039175,
      0.17904856988410559,
      0.05794646672939669,
      -0.13279104787616985,
      0.08624311332889749,
      -0.1794409363356765,
      0.10092941451297448,
      -0.05991378319291979,
      0.231851019366507,
      0.31489193818870725,
      0.003719325859308767,
      -0.019015188078540024,
      0.08438951708850487,
      -0.2248577360012152,
      0.03635679834454811,
      -0.0905663721427789,
      0.08811468968086647,
      -0.01901442349297853,
      0.2995775353535869,
      -0.15477532900732022,
      0.11891950348416756,
      0.14806609457820186,
      -0.042439638864704296,
      0.04791308998578231,
      0.3353307590447281,
      -0.02962592317021261,
      -0.10516172574273913,
      -0.23903950535127674,
      -0.04911815597833511,
      -0.10511432760491439,
      -0.14639744391608336,
      -0.09950872431777438
    ],
    [
      -0.13075003373600877,
      0.2113255697704764,
      0.11563829679791056,
      0.038775906688247506,
      0.10639170178534728,
      0.046405403588507636,
      0.20657386571612038,
      0.08318391862983149,
      0.057579908937699056,
      0.28293352249474896,
      0.08470951312369976,
      0.04097107439536436,
      0.07806778872677583,
      -0.16864043718956312,
      0.10970542895953916,
      0.16914122658769074,
      -0.05458230394753187,
      -0.06284937243859282,
      0.18475373119157174,
      -0.2145440833067763,
      0.12033245911174593,
      0.1944286239977071,
      -0.14298201844084535,
      0.04637503197435136,
      0.21161337133235952,
      -0.10594744338696346,
      -0.1489827906387216,
      -0.20913176643333414,
      0.027351332368645915,
      -0.05264713497734182,
      -0.1887574430251627,
      -0.1310950229242936
    ]
  ],
  "b1": [
    -0.1301937984969127,
    -0.14424929439123263,
    0.0019967743213849596,
    -0.14768781994888394,
    -0.11079876294619592,
    0.19194000379958126,
    -0.18152494879493764,
    -0.05340227761631378,
    0.0007195269508110607,
    0.3127087156880582,
    0.04821792610453108,
    0.009989168654120233,
    -0.09389163792027014,
    -0.14330254876935317,
    -0.0024186576880549197,
    -0.0013343495491104154,
    -0.09520782392335542,
    -0.04151979824057719,
    0.17714942898786656,
    -0.09947589773292999,
    0.016321049846795076,
    -0.196358540004212,
    -0.019517377920692223,
    -0.006545480424641698,
    0.22946910111405766,
    0.07533084248967595,
    -0.12454243145112968,
    -0.16640596975619001,
    0.1169697781564429,
    -0.003688476787391899,
    -0.5683175450076183,
    -0.06039386702946887
  ],
  "W2": [
    [
      0.23377089669187395
    ],
    [
      0.354672790858021
    ],
    [
      -0.0182013606532414
    ],
    [
      -0.2524060260950671
    ],
    [
      0.34948477979449777
    ],
    [
      0.3981690544345324
    ],
    [
      0.2977158207439859
    ],
    [
      0.1511618030356272
    ],
    [
      -0.040006478044002765
    ],
    [
      -0.6075438850014327
    ],
    [
      0.21935375269074125
    ],
    [
      -0.027806003134195324
    ],
    [
      0.23714202574604232
    ],
    [
      -0.3842184418936768
    ],
    [
      0.13715464141369318
    ],
    [
      0.11422290654260217
    ],
    [
      -0.33315826023394635
    ],
    [
      0.06688351106146519
    ],
    [
      -0.5293916693874507
    ],
    [
      -0.29304800582345775
    ],
    [
      -0.04476690488404568
    ],
    [
      0.5975320269950685
    ],
    [
      -0.10566015665995757
    ],
    [
      -0.01263326630407157
    ],
    [
      0.5378275510162452
    ],
    [
      0.2616883848070779
    ],
    [
      -0.22106911190118322
    ],
    [
      -0.4270183285518818
    ],
    [
      -0.11642203729240581
    ],
    [
      0.03495475669594893
    ],
    [
      -0.9272986523811485
    ],
    [
      -0.2343238551905241
    ]
  ],
  "b2": [
    0.09998396064471668
  ],
  "x_mu": [
    0.14123400495049504,
    -0.0015148762376237628,
    0.49564356435643564,
    0.4975247524752476
  ],
  "x_sd": [
    0.1268267712097102,
    0.07461196887096275,
    0.29715621068335657,
    0.28867159723446484
  ],
  "y_mu_ratio": 1.009314497579,
  "y_sd_ratio": 0.05611898023318123
}