{
  "W1": [
    [
      0.10439145397205962,
      -0.07670953676412988,
      -0.21379065459201013,
      -0.006246810286555119,
      0.05503062111071824,
      -0.1380980703948268,
      -0.06104260943842197,
      -0.06886633391352918,
      0.006430092520278836,
      -0.2320501904234988,
      0.13339865288799987,
      0.057310118381329773,
      0.027383817070791586,
      -0.15369824543337174,
      0.16981726592590307,
      0.021750527713048654,
      -0.28295832055992926,
      0.02802910323843688,
      0.1353995669975374,
      -0.07178645305871866,
      0.08779822470497382,
      0.010101632350314712,
      0.000504328203786692,
      -0.05414524383949774,
      -0.18262864876833745,
      -0.04426745340939805,
      0.1558044752160241,
      -0.2940393444993127,
      -0.12397975673189648,
      0.04880739922973708,
      -0.017053540617830088,
      -0.034253031742801546
    ],
    [
      -0.14704991519676272,
      -0.09118359380646648,
      -0.06600597958360795,
      0.16720889631222438,
      -0.3055263688891745,
      0.2107224344614496,
      -0.14192680608748484,
      -0.056622096186192954,
      0.11200721610843983,
      -0.3067744079255337,
      0.10028186199514848,
      -0.022778826916035604,
      -0.1887163339554338,
      -0.056592778372432435,
      0.11747594871846008,
      0.09893165482864913,
      0.23393358461890987,
      -0.04273997946077331,
      0.09922111789701248,
      -0.35664985864266874,
      0.015116561468179062,
      -0.5097299240586652,
      -0.05556186975491329,
      0.06588119588248953,
      0.2558561326775797,
      0.18810431824920934,
      0.13511847043354538,
      -0.037600216873680446,
      -0.05431737405830648,
      -0.005334368828357215,
      0.6118867361424818,
      -0.1798767866696975
    ],
    [
      -0.15868999287639765,
      0.1192827903504003,
      0.07728207449855838,
      -0.136751863276221,
      0.09109213420675726,
      0.12686200041927465,
      0.08767880438970019,
      -0.023330697466828077,
      0.24631464050106638,
      0.4063024882584258,
      0.0016056117368104033,
      -0.02008033088436017,
      0.11511429035977556,
      -0.19718111692726717,
      0.09599535841153535,
      -0.07530643666077569,
      0.010184783742965877,
      -0.02370657833989183,
      0.10221098711238986,
      -0.14420981199773683,
      0.11865803477811258,
      0.14457036354543737,
      -0.049559298008821105,
      0.06481472904633925,
      0.32856442637777156,
      -0.015222076712595081,
      -0.14611158905281454,
      -0.25789516260329715,
      -0.08761743361530842,
      -0.10216597201702944,
      0.047321079263060124,
      -0.07153851465115939
    ],
    [
      -0.14198429414962313,
      0.1424354994059727,
      0.1431094429564414,
      0.0365908949556261,
      0.10770559269645756,
      0.32072901967503176,
      0.1801945964706651,
      0.10814732645112993,
      0.070161209545811,
      0.3935917314383826,
      0.0718152907732362,
      0.04022262101609331,
      0.09585561390703434,
      -0.14472332095092258,
      0.15743973489912685,
      0.17746370120545915,
      -0.13209503125625421,
      -0.06707056917822572,
      0.001594218209461985,
      -0.2133267400355226,
      0.12037424038962478,
      0.17850426604548128,
      -0.1509419692910358,
      0.06012149350824425,
      0.19316945151217244,
      -0.09725638680247929,
      -0.19066079809774775,
      -0.2148189990368074,
      0.0015252840034896758,
      -0.050134949010595134,
      0.03025037061228597,
      -0.10705821783919493
    ]
  ],
  "b1": [
    -0.13591031388489716,
    -0.07880109551652305,
    0.06466537750336568,
    -0.1540872543800176,
    -0.09415858686048911,
    0.22542463805703886,
    -0.09829030320459464,
    0.019202151376122984,
    -0.0006571001108773592,
    0.3854308145603273,
    0.01261601967896778,
    0.006942692981922258,
    -0.01855896841141796,
    -0.12490821826152344,
    0.11187735840956688,
    0.03256933453979479,
    -0.18516647506677175,
    -0.045699266492137826,
    -0.08270396258926745,
    -0.09484272577447882,
    0.021077712474736006,
    -0.1003656170249527,
    -0.01632526400600974,
    0.04188875162488642,
    0.23453769110990788,
    0.0449965418702531,
    -0.14700431249620077,
    -0.20426899424141068,
    0.06615735419773376,
    -0.005998790611583825,
    -0.43319458538199995,
    -0.04699804603661525
  ],
  "W2": [
    [
      0.2702029584372076
    ],
    [
      0.22333800238765575
    ],
    [
      -0.15149751413455043
    ],
    [
      -0.251723345768276
    ],
    [
      0.3397306839282575
    ],
    [
      0.4603213224941636
    ],
    [
      0.20871006523115287
    ],
    [
      -0.04598330289655585
    ],
    [
      0.0009994996787001168
    ],
    [
      -0.7622235514549439
    ],
    [
      0.13286509837466043
    ],
    [
      -0.016541257324510075
    ],
    [
      0.14676247456137054
    ],
    [
      -0.3196171697264823
    ],
    [
      -0.1815450316512142
    ],
    [
      -0.06792129154487468
    ],
    [
      -0.4327163549486055
    ],
    [
      0.0793596894635417
    ],
    [
      -0.28189649691960295
    ],
    [
      -0.39263906396083686
    ],
    [
      -0.05250602749501812
    ],
    [
      0.513853007415916
    ],
    [
      -0.11405337776185889
    ],
    [
      0.05845992850975963
    ],
    [
      0.5084729701840544
    ],
    [
      0.22404592521644176
    ],
    [
      -0.30074704822508186
    ],
    [
      -0.46764677141555533
    ],
    [
      -0.08687277510856042
    ],
    [
      0.02038398109596016
    ],
    [
      -0.7866560836845848
    ],
    [
      -0.22999963394875023
    ]
  ],
  "b2": [
    0.2312200779354738
  ],
  "x_mu": [
    0.14239453233830843,
    -0.0015224129353233835,
    0.49412935323383084,
    0.4975124378109453
  ],
  "x_sd": [
    0.12606742842077434,
    0.07392848699713261,
    0.297116094006185,
    0.2886715619490748
  ],
  "y_mu_ratio": 1.0090480936186543,
  "y_sd_ratio": 0.05088205179472204
}