{
  "W1": [
    [
      0.2497271077782224,
      -0.04533780271350809,
      0.031178188257914175,
      0.1016663903308491,
      -0.1917833793276001,
      -0.11628445706942546,
      0.13015849278049862,
      -0.16597922612931262,
      -0.07611106090844814,
      -0.19246480686071946,
      0.4660828974801421,
      0.1538612657436762,
      -0.011349925861562866,
      0.2758809292647341,
      -0.07065077574268669,
      -0.1196211597810907
    ],
    [
      -0.034581278205881825,
      -0.22641474958055569,
      0.10379661373755862,
      -0.03262295142379383,
      -0.0051951634184066635,
      -0.07574570922973961,
      0.14391619469060707,
      0.042722900170525324,
      0.014078366376836703,
      0.04036348753367064,
      -0.13098579420031828,
      -0.00931717419776392,
      0.04141152747008487,
      -0.0382030218900438,
      0.22508604014729652,
      -0.003215968547222972
    ]
  ],
  "b1": [
    0.00403602878398905,
    0.05846671385181773,
    -0.022814726359311543,
    -0.08117489468541333,
    0.16619965257002317,
    -0.010672938933168629,
    -0.049999174297777636,
    0.14359402265189752,
    0.07346018773013248,
    0.1791961176819151,
    0.021991803686725844,
    0.027030701345668404,
    0.0015544440707895054,
    0.00446773472348279,
    -0.0024491240198546743,
    0.10366635552956259
  ],
  "W2": [
    [
      -0.2527144707385461
    ],
    [
      -0.2086489373206462
    ],
    [
      -0.05360541714040386
    ],
    [
      0.14739072170786705
    ],
    [
      0.16280289247983049
    ],
    [
      -0.07119676588337696
    ],
    [
      -0.17867917907910144
    ],
    [
      0.22954005216240783
    ],
    [
      0.12226090016872446
    ],
    [
      0.25482245511629614
    ],
    [
      -0.47828927498298107
    ],
    [
      -0.13326995609859038
    ],
    [
      0.016142274831530135
    ],
    [
      -0.25250009519695943
    ],
    [
      0.12582362909869185
    ],
    [
      0.1286076602397835
    ]
  ],
  "b2": [
    0.03656050964457378
  ],
  "x_mu": [
    0.14312077777777776,
    -0.002031654320987655
  ],
  "x_sd": [
    0.1394644702132561,
    0.0760208252827515
  ],
  "y_mu": 1638.3552469135802,
  "y_sd": 653.0159457473054
}